<?xml version="1.0"?>
<opencv_storage>
<opencv_ml_em>
  <format>3</format>
  <training_params>
    <nclusters>2</nclusters>
    <cov_mat_type>spherical</cov_mat_type>
    <epsilon>1.0000000000000001e-01</epsilon>
    <iterations>100</iterations></training_params>
  <weights type_id="opencv-matrix">
    <rows>1</rows>
    <cols>2</cols>
    <dt>d</dt>
    <data>
      7.0483199870250368e-01 2.9516800129750265e-01</data></weights>
  <means type_id="opencv-matrix">
    <rows>2</rows>
    <cols>3</cols>
    <dt>d</dt>
    <data>
      4.6892330146667788e+01 4.1182766535628957e+01
      2.6906681724299048e+01 1.0363273174358164e+02
      1.0293953288918860e+02 7.3105665868845207e+01</data></means>
  <covs>
    <_ type_id="opencv-matrix">
      <rows>3</rows>
      <cols>3</cols>
      <dt>d</dt>
      <data>
        2.5397624217814425e+02 0. 0. 0. 2.5397624217814425e+02 0. 0. 0.
        2.5397624217814425e+02</data></_>
    <_ type_id="opencv-matrix">
      <rows>3</rows>
      <cols>3</cols>
      <dt>d</dt>
      <data>
        9.6016488218710003e+02 0. 0. 0. 9.6016488218710003e+02 0. 0. 0.
        9.6016488218710003e+02</data></_></covs></opencv_ml_em>
</opencv_storage>
