<?xml version="1.0"?>
<opencv_storage>
<opencv_ml_em>
  <format>3</format>
  <training_params>
    <nclusters>2</nclusters>
    <cov_mat_type>spherical</cov_mat_type>
    <epsilon>1.0000000000000001e-01</epsilon>
    <iterations>100</iterations></training_params>
  <weights type_id="opencv-matrix">
    <rows>1</rows>
    <cols>2</cols>
    <dt>d</dt>
    <data>
      8.4781505487442566e-01 1.5218494512557748e-01</data></weights>
  <means type_id="opencv-matrix">
    <rows>2</rows>
    <cols>3</cols>
    <dt>d</dt>
    <data>
      2.7094623717871890e+01 2.1919806791382534e+01
      1.5700097784167818e+01 8.6780868312304577e+01
      8.8667773073436280e+01 7.5387302320746585e+01</data></means>
  <covs>
    <_ type_id="opencv-matrix">
      <rows>3</rows>
      <cols>3</cols>
      <dt>d</dt>
      <data>
        3.8334058676344036e+01 0. 0. 0. 3.8334058676344036e+01 0. 0. 0.
        3.8334058676344036e+01</data></_>
    <_ type_id="opencv-matrix">
      <rows>3</rows>
      <cols>3</cols>
      <dt>d</dt>
      <data>
        8.8790647987919840e+02 0. 0. 0. 8.8790647987919840e+02 0. 0. 0.
        8.8790647987919840e+02</data></_></covs></opencv_ml_em>
</opencv_storage>
