<?xml version="1.0"?>
<opencv_storage>
<opencv_ml_em>
  <format>3</format>
  <training_params>
    <nclusters>2</nclusters>
    <cov_mat_type>spherical</cov_mat_type>
    <epsilon>1.0000000000000001e-01</epsilon>
    <iterations>100</iterations></training_params>
  <weights type_id="opencv-matrix">
    <rows>1</rows>
    <cols>2</cols>
    <dt>d</dt>
    <data>
      3.8929727285137067e-01 6.1070272714863150e-01</data></weights>
  <means type_id="opencv-matrix">
    <rows>2</rows>
    <cols>3</cols>
    <dt>d</dt>
    <data>
      9.5729349764171488e+01 9.1340305936525155e+01
      8.7787645203263679e+01 6.9639104558369056e+01
      6.3439173936779923e+01 6.0099140966423143e+01</data></means>
  <covs>
    <_ type_id="opencv-matrix">
      <rows>3</rows>
      <cols>3</cols>
      <dt>d</dt>
      <data>
        4.0513093716553738e+02 0. 0. 0. 4.0513093716553738e+02 0. 0. 0.
        4.0513093716553738e+02</data></_>
    <_ type_id="opencv-matrix">
      <rows>3</rows>
      <cols>3</cols>
      <dt>d</dt>
      <data>
        1.7400852755914502e+02 0. 0. 0. 1.7400852755914502e+02 0. 0. 0.
        1.7400852755914502e+02</data></_></covs></opencv_ml_em>
</opencv_storage>
