<?xml version="1.0"?>
<opencv_storage>
<opencv_ml_em>
  <format>3</format>
  <training_params>
    <nclusters>2</nclusters>
    <cov_mat_type>spherical</cov_mat_type>
    <epsilon>1.0000000000000001e-01</epsilon>
    <iterations>100</iterations></training_params>
  <weights type_id="opencv-matrix">
    <rows>1</rows>
    <cols>2</cols>
    <dt>d</dt>
    <data>
      5.7184108151144020e-01 4.2815891848856780e-01</data></weights>
  <means type_id="opencv-matrix">
    <rows>2</rows>
    <cols>3</cols>
    <dt>d</dt>
    <data>
      5.1346731910986598e+01 4.4217338210705158e+01
      2.7198463400540202e+01 1.0747527254004916e+02
      9.7040284662063087e+01 6.3098442539853991e+01</data></means>
  <covs>
    <_ type_id="opencv-matrix">
      <rows>3</rows>
      <cols>3</cols>
      <dt>d</dt>
      <data>
        2.8502229814659904e+02 0. 0. 0. 2.8502229814659904e+02 0. 0. 0.
        2.8502229814659904e+02</data></_>
    <_ type_id="opencv-matrix">
      <rows>3</rows>
      <cols>3</cols>
      <dt>d</dt>
      <data>
        7.4364142525251077e+02 0. 0. 0. 7.4364142525251077e+02 0. 0. 0.
        7.4364142525251077e+02</data></_></covs></opencv_ml_em>
</opencv_storage>
