<?xml version="1.0"?>
<opencv_storage>
<opencv_ml_em>
  <format>3</format>
  <training_params>
    <nclusters>2</nclusters>
    <cov_mat_type>spherical</cov_mat_type>
    <epsilon>1.0000000000000001e-01</epsilon>
    <iterations>100</iterations></training_params>
  <weights type_id="opencv-matrix">
    <rows>1</rows>
    <cols>2</cols>
    <dt>d</dt>
    <data>
      8.0691147819737608e-01 1.9308852180262223e-01</data></weights>
  <means type_id="opencv-matrix">
    <rows>2</rows>
    <cols>3</cols>
    <dt>d</dt>
    <data>
      6.7666947538928838e+01 6.1122558140026264e+01
      5.2153606919195717e+01 1.0324955148157321e+02
      9.5965030461941737e+01 8.0127848222944422e+01</data></means>
  <covs>
    <_ type_id="opencv-matrix">
      <rows>3</rows>
      <cols>3</cols>
      <dt>d</dt>
      <data>
        1.6873641940311538e+02 0. 0. 0. 1.6873641940311538e+02 0. 0. 0.
        1.6873641940311538e+02</data></_>
    <_ type_id="opencv-matrix">
      <rows>3</rows>
      <cols>3</cols>
      <dt>d</dt>
      <data>
        6.1448771364414256e+02 0. 0. 0. 6.1448771364414256e+02 0. 0. 0.
        6.1448771364414256e+02</data></_></covs></opencv_ml_em>
</opencv_storage>
