<?xml version="1.0"?>
<opencv_storage>
<opencv_ml_em>
  <format>3</format>
  <training_params>
    <nclusters>4</nclusters>
    <cov_mat_type>spherical</cov_mat_type>
    <epsilon>1.0000000000000001e-01</epsilon>
    <iterations>100</iterations></training_params>
  <weights type_id="opencv-matrix">
    <rows>1</rows>
    <cols>4</cols>
    <dt>d</dt>
    <data>
      4.1690096041574548e-01 2.0242476371314130e-01
      9.6113088022053622e-02 2.8456118784905898e-01</data></weights>
  <means type_id="opencv-matrix">
    <rows>4</rows>
    <cols>3</cols>
    <dt>d</dt>
    <data>
      1.0388286282976007e+02 1.0607912531003490e+02
      6.6718356548863866e+01 6.7505977529538043e+01
      8.5910347019088476e+01 1.0526163705583707e+02
      5.0566289036102091e+01 5.7889962551821775e+01
      5.8536408130352527e+01 8.2085233376270509e+01
      1.0439317105683197e+02 1.3264315047331272e+02</data></means>
  <covs>
    <_ type_id="opencv-matrix">
      <rows>3</rows>
      <cols>3</cols>
      <dt>d</dt>
      <data>
        1.6124269878528898e+02 0. 0. 0. 1.6124269878528898e+02 0. 0. 0.
        1.6124269878528898e+02</data></_>
    <_ type_id="opencv-matrix">
      <rows>3</rows>
      <cols>3</cols>
      <dt>d</dt>
      <data>
        1.1078827037424074e+02 0. 0. 0. 1.1078827037424074e+02 0. 0. 0.
        1.1078827037424074e+02</data></_>
    <_ type_id="opencv-matrix">
      <rows>3</rows>
      <cols>3</cols>
      <dt>d</dt>
      <data>
        8.3108375104279872e+01 0. 0. 0. 8.3108375104279872e+01 0. 0. 0.
        8.3108375104279872e+01</data></_>
    <_ type_id="opencv-matrix">
      <rows>3</rows>
      <cols>3</cols>
      <dt>d</dt>
      <data>
        9.9175706050033398e+01 0. 0. 0. 9.9175706050033398e+01 0. 0. 0.
        9.9175706050033398e+01</data></_></covs></opencv_ml_em>
</opencv_storage>
