<?xml version="1.0"?>
<opencv_storage>
<opencv_ml_em>
  <format>3</format>
  <training_params>
    <nclusters>2</nclusters>
    <cov_mat_type>spherical</cov_mat_type>
    <epsilon>1.0000000000000001e-01</epsilon>
    <iterations>100</iterations></training_params>
  <weights type_id="opencv-matrix">
    <rows>1</rows>
    <cols>2</cols>
    <dt>d</dt>
    <data>
      6.0959325397366793e-01 3.9040674602632947e-01</data></weights>
  <means type_id="opencv-matrix">
    <rows>2</rows>
    <cols>3</cols>
    <dt>d</dt>
    <data>
      7.4248226688590094e+01 6.5080822293544045e+01
      4.8266730332082822e+01 1.4037943962672529e+02
      1.3439374941818298e+02 1.0550051981100256e+02</data></means>
  <covs>
    <_ type_id="opencv-matrix">
      <rows>3</rows>
      <cols>3</cols>
      <dt>d</dt>
      <data>
        4.7373937118376602e+02 0. 0. 0. 4.7373937118376602e+02 0. 0. 0.
        4.7373937118376602e+02</data></_>
    <_ type_id="opencv-matrix">
      <rows>3</rows>
      <cols>3</cols>
      <dt>d</dt>
      <data>
        1.0658058597212503e+03 0. 0. 0. 1.0658058597212503e+03 0. 0. 0.
        1.0658058597212503e+03</data></_></covs></opencv_ml_em>
</opencv_storage>
