<?xml version="1.0"?>
<opencv_storage>
<opencv_ml_em>
  <format>3</format>
  <training_params>
    <nclusters>3</nclusters>
    <cov_mat_type>spherical</cov_mat_type>
    <epsilon>1.0000000000000001e-01</epsilon>
    <iterations>100</iterations></training_params>
  <weights type_id="opencv-matrix">
    <rows>1</rows>
    <cols>3</cols>
    <dt>d</dt>
    <data>
      4.5588469530451864e-01 1.5100107224127030e-01
      3.9311423245421523e-01</data></weights>
  <means type_id="opencv-matrix">
    <rows>3</rows>
    <cols>3</cols>
    <dt>d</dt>
    <data>
      3.5923404712725350e+01 3.0271332770752789e+01
      1.9177837882308072e+01 1.1815093238177185e+02
      1.1733504996539510e+02 8.4744769563606070e+01
      7.8107588880020842e+01 7.0233842208385155e+01
      5.0764789261867719e+01</data></means>
  <covs>
    <_ type_id="opencv-matrix">
      <rows>3</rows>
      <cols>3</cols>
      <dt>d</dt>
      <data>
        9.7089692670894848e+01 0. 0. 0. 9.7089692670894848e+01 0. 0. 0.
        9.7089692670894848e+01</data></_>
    <_ type_id="opencv-matrix">
      <rows>3</rows>
      <cols>3</cols>
      <dt>d</dt>
      <data>
        8.5959568100657077e+02 0. 0. 0. 8.5959568100657077e+02 0. 0. 0.
        8.5959568100657077e+02</data></_>
    <_ type_id="opencv-matrix">
      <rows>3</rows>
      <cols>3</cols>
      <dt>d</dt>
      <data>
        2.2286785505040771e+02 0. 0. 0. 2.2286785505040771e+02 0. 0. 0.
        2.2286785505040771e+02</data></_></covs></opencv_ml_em>
</opencv_storage>
