<?xml version="1.0"?>
<opencv_storage>
<opencv_ml_em>
  <format>3</format>
  <training_params>
    <nclusters>4</nclusters>
    <cov_mat_type>spherical</cov_mat_type>
    <epsilon>1.0000000000000001e-01</epsilon>
    <iterations>100</iterations></training_params>
  <weights type_id="opencv-matrix">
    <rows>1</rows>
    <cols>4</cols>
    <dt>d</dt>
    <data>
      2.9351477187935060e-01 4.0766228671615451e-01
      1.4837407052345408e-01 1.5044887088104103e-01</data></weights>
  <means type_id="opencv-matrix">
    <rows>4</rows>
    <cols>3</cols>
    <dt>d</dt>
    <data>
      5.0502878293918620e+01 4.4319181999719589e+01
      3.3700307215581994e+01 6.7421837256906684e+01
      5.8653803311990572e+01 5.5181007835866431e+01
      8.4657562444540659e+01 9.3468432628283281e+01
      4.4121149385669732e+01 4.0297837424722850e+01
      3.9047100426621327e+01 1.3917277424039106e+01</data></means>
  <covs>
    <_ type_id="opencv-matrix">
      <rows>3</rows>
      <cols>3</cols>
      <dt>d</dt>
      <data>
        1.7181641061384138e+01 0. 0. 0. 1.7181641061384138e+01 0. 0. 0.
        1.7181641061384138e+01</data></_>
    <_ type_id="opencv-matrix">
      <rows>3</rows>
      <cols>3</cols>
      <dt>d</dt>
      <data>
        2.4578330183964539e+01 0. 0. 0. 2.4578330183964539e+01 0. 0. 0.
        2.4578330183964539e+01</data></_>
    <_ type_id="opencv-matrix">
      <rows>3</rows>
      <cols>3</cols>
      <dt>d</dt>
      <data>
        2.9199676986385043e+01 0. 0. 0. 2.9199676986385043e+01 0. 0. 0.
        2.9199676986385043e+01</data></_>
    <_ type_id="opencv-matrix">
      <rows>3</rows>
      <cols>3</cols>
      <dt>d</dt>
      <data>
        2.7351801714565440e+01 0. 0. 0. 2.7351801714565440e+01 0. 0. 0.
        2.7351801714565440e+01</data></_></covs></opencv_ml_em>
</opencv_storage>
