<?xml version="1.0"?>
<opencv_storage>
<opencv_ml_em>
  <format>3</format>
  <training_params>
    <nclusters>3</nclusters>
    <cov_mat_type>spherical</cov_mat_type>
    <epsilon>1.0000000000000001e-01</epsilon>
    <iterations>100</iterations></training_params>
  <weights type_id="opencv-matrix">
    <rows>1</rows>
    <cols>3</cols>
    <dt>d</dt>
    <data>
      3.7468886479371671e-01 1.3964188712850240e-01
      4.8566924807778034e-01</data></weights>
  <means type_id="opencv-matrix">
    <rows>3</rows>
    <cols>3</cols>
    <dt>d</dt>
    <data>
      8.9405115536791115e+01 7.0346464785212135e+01
      4.8939652414903591e+01 1.6791763114040435e+02
      1.4261022119057515e+02 1.1087598220681177e+02
      1.1648678576955764e+02 9.4650177399511833e+01
      6.9351203034332585e+01</data></means>
  <covs>
    <_ type_id="opencv-matrix">
      <rows>3</rows>
      <cols>3</cols>
      <dt>d</dt>
      <data>
        1.8360873267334020e+02 0. 0. 0. 1.8360873267334020e+02 0. 0. 0.
        1.8360873267334020e+02</data></_>
    <_ type_id="opencv-matrix">
      <rows>3</rows>
      <cols>3</cols>
      <dt>d</dt>
      <data>
        6.9128377419031199e+02 0. 0. 0. 6.9128377419031199e+02 0. 0. 0.
        6.9128377419031199e+02</data></_>
    <_ type_id="opencv-matrix">
      <rows>3</rows>
      <cols>3</cols>
      <dt>d</dt>
      <data>
        1.3587196564239795e+02 0. 0. 0. 1.3587196564239795e+02 0. 0. 0.
        1.3587196564239795e+02</data></_></covs></opencv_ml_em>
</opencv_storage>
