<?xml version="1.0"?>
<opencv_storage>
<opencv_ml_em>
  <format>3</format>
  <training_params>
    <nclusters>4</nclusters>
    <cov_mat_type>spherical</cov_mat_type>
    <epsilon>1.0000000000000001e-01</epsilon>
    <iterations>100</iterations></training_params>
  <weights type_id="opencv-matrix">
    <rows>1</rows>
    <cols>4</cols>
    <dt>d</dt>
    <data>
      3.2530275139536213e-01 2.5821167913752247e-01
      9.6574538882090250e-02 3.1991103058502535e-01</data></weights>
  <means type_id="opencv-matrix">
    <rows>4</rows>
    <cols>3</cols>
    <dt>d</dt>
    <data>
      4.4178711171393218e+01 4.0392393197947555e+01
      2.2582129926834927e+01 7.0243310078187093e+01
      6.1511382680435773e+01 5.7975237473634074e+01
      8.6318975984051093e+01 9.5736196282127850e+01
      4.4691702013369145e+01 5.8189787604757974e+01
      4.9840889787730127e+01 4.5401775564730350e+01</data></means>
  <covs>
    <_ type_id="opencv-matrix">
      <rows>3</rows>
      <cols>3</cols>
      <dt>d</dt>
      <data>
        4.5345360111155472e+01 0. 0. 0. 4.5345360111155472e+01 0. 0. 0.
        4.5345360111155472e+01</data></_>
    <_ type_id="opencv-matrix">
      <rows>3</rows>
      <cols>3</cols>
      <dt>d</dt>
      <data>
        6.9188152740360245e+00 0. 0. 0. 6.9188152740360245e+00 0. 0. 0.
        6.9188152740360245e+00</data></_>
    <_ type_id="opencv-matrix">
      <rows>3</rows>
      <cols>3</cols>
      <dt>d</dt>
      <data>
        6.6050559746295676e+01 0. 0. 0. 6.6050559746295676e+01 0. 0. 0.
        6.6050559746295676e+01</data></_>
    <_ type_id="opencv-matrix">
      <rows>3</rows>
      <cols>3</cols>
      <dt>d</dt>
      <data>
        1.5306313349236341e+01 0. 0. 0. 1.5306313349236341e+01 0. 0. 0.
        1.5306313349236341e+01</data></_></covs></opencv_ml_em>
</opencv_storage>
