<?xml version="1.0"?>
<opencv_storage>
<opencv_ml_em>
  <format>3</format>
  <training_params>
    <nclusters>3</nclusters>
    <cov_mat_type>spherical</cov_mat_type>
    <epsilon>1.0000000000000001e-01</epsilon>
    <iterations>100</iterations></training_params>
  <weights type_id="opencv-matrix">
    <rows>1</rows>
    <cols>3</cols>
    <dt>d</dt>
    <data>
      7.8877212231912153e-01 6.8014773287278285e-02
      1.4321310439360396e-01</data></weights>
  <means type_id="opencv-matrix">
    <rows>3</rows>
    <cols>3</cols>
    <dt>d</dt>
    <data>
      2.7866756701793303e+01 2.2350547005942300e+01
      1.6265786000959981e+01 1.1760692480346060e+02
      1.1910289710933665e+02 1.0899474780286829e+02
      6.9962156417664985e+01 7.1237301913826812e+01
      6.2147250718706587e+01</data></means>
  <covs>
    <_ type_id="opencv-matrix">
      <rows>3</rows>
      <cols>3</cols>
      <dt>d</dt>
      <data>
        3.0877857359042963e+01 0. 0. 0. 3.0877857359042963e+01 0. 0. 0.
        3.0877857359042963e+01</data></_>
    <_ type_id="opencv-matrix">
      <rows>3</rows>
      <cols>3</cols>
      <dt>d</dt>
      <data>
        6.4035077395316262e+02 0. 0. 0. 6.4035077395316262e+02 0. 0. 0.
        6.4035077395316262e+02</data></_>
    <_ type_id="opencv-matrix">
      <rows>3</rows>
      <cols>3</cols>
      <dt>d</dt>
      <data>
        3.2090067551050890e+02 0. 0. 0. 3.2090067551050890e+02 0. 0. 0.
        3.2090067551050890e+02</data></_></covs></opencv_ml_em>
</opencv_storage>
