<?xml version="1.0"?>
<opencv_storage>
<opencv_ml_em>
  <format>3</format>
  <training_params>
    <nclusters>3</nclusters>
    <cov_mat_type>spherical</cov_mat_type>
    <epsilon>1.0000000000000001e-01</epsilon>
    <iterations>100</iterations></training_params>
  <weights type_id="opencv-matrix">
    <rows>1</rows>
    <cols>3</cols>
    <dt>d</dt>
    <data>
      3.6512503646970107e-01 1.9505791080593501e-01
      4.3981705272436539e-01</data></weights>
  <means type_id="opencv-matrix">
    <rows>3</rows>
    <cols>3</cols>
    <dt>d</dt>
    <data>
      7.0029676572733337e+01 6.5415640212402394e+01
      4.5001831015936197e+01 1.1805012651319460e+02
      1.1940470236281892e+02 8.5785911429489460e+01
      3.7570955197214261e+01 3.2326468962263775e+01
      1.9734164664583140e+01</data></means>
  <covs>
    <_ type_id="opencv-matrix">
      <rows>3</rows>
      <cols>3</cols>
      <dt>d</dt>
      <data>
        2.0369091192999863e+02 0. 0. 0. 2.0369091192999863e+02 0. 0. 0.
        2.0369091192999863e+02</data></_>
    <_ type_id="opencv-matrix">
      <rows>3</rows>
      <cols>3</cols>
      <dt>d</dt>
      <data>
        9.3449796204748725e+02 0. 0. 0. 9.3449796204748725e+02 0. 0. 0.
        9.3449796204748725e+02</data></_>
    <_ type_id="opencv-matrix">
      <rows>3</rows>
      <cols>3</cols>
      <dt>d</dt>
      <data>
        8.5163936742386184e+01 0. 0. 0. 8.5163936742386184e+01 0. 0. 0.
        8.5163936742386184e+01</data></_></covs></opencv_ml_em>
</opencv_storage>
