<?xml version="1.0"?>
<opencv_storage>
<opencv_ml_em>
  <format>3</format>
  <training_params>
    <nclusters>4</nclusters>
    <cov_mat_type>spherical</cov_mat_type>
    <epsilon>1.0000000000000001e-01</epsilon>
    <iterations>100</iterations></training_params>
  <weights type_id="opencv-matrix">
    <rows>1</rows>
    <cols>4</cols>
    <dt>d</dt>
    <data>
      1.6968774942149850e-01 3.7999310565860794e-01
      1.2445810371372401e-01 3.2586104120616949e-01</data></weights>
  <means type_id="opencv-matrix">
    <rows>4</rows>
    <cols>3</cols>
    <dt>d</dt>
    <data>
      4.5633282210037514e+01 4.0959531488283289e+01
      2.5970750108538414e+01 5.8736540835904080e+01
      5.0155632878372465e+01 4.6299272304718230e+01
      8.5276386537033574e+01 9.4546255171856615e+01
      4.3962381495914627e+01 7.0575882079890135e+01
      6.1855848566001093e+01 5.8295915579421127e+01</data></means>
  <covs>
    <_ type_id="opencv-matrix">
      <rows>3</rows>
      <cols>3</cols>
      <dt>d</dt>
      <data>
        3.3889613582880685e+01 0. 0. 0. 3.3889613582880685e+01 0. 0. 0.
        3.3889613582880685e+01</data></_>
    <_ type_id="opencv-matrix">
      <rows>3</rows>
      <cols>3</cols>
      <dt>d</dt>
      <data>
        1.0426658221458080e+01 0. 0. 0. 1.0426658221458080e+01 0. 0. 0.
        1.0426658221458080e+01</data></_>
    <_ type_id="opencv-matrix">
      <rows>3</rows>
      <cols>3</cols>
      <dt>d</dt>
      <data>
        5.5144156375185887e+01 0. 0. 0. 5.5144156375185887e+01 0. 0. 0.
        5.5144156375185887e+01</data></_>
    <_ type_id="opencv-matrix">
      <rows>3</rows>
      <cols>3</cols>
      <dt>d</dt>
      <data>
        7.6784025747881666e+00 0. 0. 0. 7.6784025747881666e+00 0. 0. 0.
        7.6784025747881666e+00</data></_></covs></opencv_ml_em>
</opencv_storage>
