<?xml version="1.0"?>
<opencv_storage>
<opencv_ml_em>
  <format>3</format>
  <training_params>
    <nclusters>3</nclusters>
    <cov_mat_type>spherical</cov_mat_type>
    <epsilon>1.0000000000000001e-01</epsilon>
    <iterations>100</iterations></training_params>
  <weights type_id="opencv-matrix">
    <rows>1</rows>
    <cols>3</cols>
    <dt>d</dt>
    <data>
      5.4831379962365900e-01 2.2296449172295926e-01
      2.2872170865338257e-01</data></weights>
  <means type_id="opencv-matrix">
    <rows>3</rows>
    <cols>3</cols>
    <dt>d</dt>
    <data>
      1.1789224801406425e+02 9.7026656588243597e+01
      7.3443650957579138e+01 1.5467246757388318e+02
      1.3474733328131484e+02 1.1078812465337546e+02
      7.7131201518042829e+01 6.6396558839986909e+01
      5.1554951889488024e+01</data></means>
  <covs>
    <_ type_id="opencv-matrix">
      <rows>3</rows>
      <cols>3</cols>
      <dt>d</dt>
      <data>
        1.5458813527027655e+02 0. 0. 0. 1.5458813527027655e+02 0. 0. 0.
        1.5458813527027655e+02</data></_>
    <_ type_id="opencv-matrix">
      <rows>3</rows>
      <cols>3</cols>
      <dt>d</dt>
      <data>
        6.6902474671904338e+02 0. 0. 0. 6.6902474671904338e+02 0. 0. 0.
        6.6902474671904338e+02</data></_>
    <_ type_id="opencv-matrix">
      <rows>3</rows>
      <cols>3</cols>
      <dt>d</dt>
      <data>
        2.3577754735325865e+02 0. 0. 0. 2.3577754735325865e+02 0. 0. 0.
        2.3577754735325865e+02</data></_></covs></opencv_ml_em>
</opencv_storage>
