<?xml version="1.0"?>
<opencv_storage>
<opencv_ml_em>
  <format>3</format>
  <training_params>
    <nclusters>4</nclusters>
    <cov_mat_type>spherical</cov_mat_type>
    <epsilon>1.0000000000000001e-01</epsilon>
    <iterations>100</iterations></training_params>
  <weights type_id="opencv-matrix">
    <rows>1</rows>
    <cols>4</cols>
    <dt>d</dt>
    <data>
      1.0315107986485800e-01 2.9676270756670231e-01
      3.2112565155569089e-01 2.7896056101274885e-01</data></weights>
  <means type_id="opencv-matrix">
    <rows>4</rows>
    <cols>3</cols>
    <dt>d</dt>
    <data>
      8.6364199104710067e+01 9.5887747490334235e+01
      4.4654677828615085e+01 5.8687965914059532e+01
      5.0229236812686878e+01 4.6053342831426257e+01
      4.4293030537454442e+01 4.0530835798890806e+01
      2.2490385125588073e+01 6.9475408110941544e+01
      6.0785118292981402e+01 5.7165697928874593e+01</data></means>
  <covs>
    <_ type_id="opencv-matrix">
      <rows>3</rows>
      <cols>3</cols>
      <dt>d</dt>
      <data>
        5.1819580227620406e+01 0. 0. 0. 5.1819580227620406e+01 0. 0. 0.
        5.1819580227620406e+01</data></_>
    <_ type_id="opencv-matrix">
      <rows>3</rows>
      <cols>3</cols>
      <dt>d</dt>
      <data>
        1.2802868997682445e+01 0. 0. 0. 1.2802868997682445e+01 0. 0. 0.
        1.2802868997682445e+01</data></_>
    <_ type_id="opencv-matrix">
      <rows>3</rows>
      <cols>3</cols>
      <dt>d</dt>
      <data>
        4.0062881533692277e+01 0. 0. 0. 4.0062881533692277e+01 0. 0. 0.
        4.0062881533692277e+01</data></_>
    <_ type_id="opencv-matrix">
      <rows>3</rows>
      <cols>3</cols>
      <dt>d</dt>
      <data>
        5.5917548995761672e+00 0. 0. 0. 5.5917548995761672e+00 0. 0. 0.
        5.5917548995761672e+00</data></_></covs></opencv_ml_em>
</opencv_storage>
