<?xml version="1.0"?>
<opencv_storage>
<opencv_ml_em>
  <format>3</format>
  <training_params>
    <nclusters>3</nclusters>
    <cov_mat_type>spherical</cov_mat_type>
    <epsilon>1.0000000000000001e-01</epsilon>
    <iterations>100</iterations></training_params>
  <weights type_id="opencv-matrix">
    <rows>1</rows>
    <cols>3</cols>
    <dt>d</dt>
    <data>
      1.2266773543143715e-01 4.0110755554859845e-01
      4.7622470901996167e-01</data></weights>
  <means type_id="opencv-matrix">
    <rows>3</rows>
    <cols>3</cols>
    <dt>d</dt>
    <data>
      1.1269724962238043e+02 1.1259394863415932e+02
      1.0678751718323277e+02 6.3515758950182523e+01
      5.7551688490114948e+01 5.3532187806386254e+01
      8.4965791390109160e+01 7.8442688882142633e+01
      7.6146298455818098e+01</data></means>
  <covs>
    <_ type_id="opencv-matrix">
      <rows>3</rows>
      <cols>3</cols>
      <dt>d</dt>
      <data>
        4.4671726828833351e+02 0. 0. 0. 4.4671726828833351e+02 0. 0. 0.
        4.4671726828833351e+02</data></_>
    <_ type_id="opencv-matrix">
      <rows>3</rows>
      <cols>3</cols>
      <dt>d</dt>
      <data>
        1.2482996757649165e+02 0. 0. 0. 1.2482996757649165e+02 0. 0. 0.
        1.2482996757649165e+02</data></_>
    <_ type_id="opencv-matrix">
      <rows>3</rows>
      <cols>3</cols>
      <dt>d</dt>
      <data>
        8.5819134652561900e+01 0. 0. 0. 8.5819134652561900e+01 0. 0. 0.
        8.5819134652561900e+01</data></_></covs></opencv_ml_em>
</opencv_storage>