<?xml version="1.0"?>
<opencv_storage>
<opencv_ml_em>
  <format>3</format>
  <training_params>
    <nclusters>4</nclusters>
    <cov_mat_type>spherical</cov_mat_type>
    <epsilon>1.0000000000000001e-01</epsilon>
    <iterations>100</iterations></training_params>
  <weights type_id="opencv-matrix">
    <rows>1</rows>
    <cols>4</cols>
    <dt>d</dt>
    <data>
      2.5285244061656237e-01 4.2230888911805808e-01
      7.8784664789001646e-02 2.4605400547637782e-01</data></weights>
  <means type_id="opencv-matrix">
    <rows>4</rows>
    <cols>3</cols>
    <dt>d</dt>
    <data>
      7.0355312364841211e+01 6.1872477549307831e+01
      5.8376480978360348e+01 4.4188578630979137e+01
      3.9976664589005573e+01 2.3380999425239040e+01
      8.6052143895259846e+01 9.5448896444101194e+01
      4.4330579018586306e+01 5.9114170572547472e+01
      5.0442257511490460e+01 4.6865025307884473e+01</data></means>
  <covs>
    <_ type_id="opencv-matrix">
      <rows>3</rows>
      <cols>3</cols>
      <dt>d</dt>
      <data>
        6.4213214838335189e+00 0. 0. 0. 6.4213214838335189e+00 0. 0. 0.
        6.4213214838335189e+00</data></_>
    <_ type_id="opencv-matrix">
      <rows>3</rows>
      <cols>3</cols>
      <dt>d</dt>
      <data>
        3.0800109191218748e+01 0. 0. 0. 3.0800109191218748e+01 0. 0. 0.
        3.0800109191218748e+01</data></_>
    <_ type_id="opencv-matrix">
      <rows>3</rows>
      <cols>3</cols>
      <dt>d</dt>
      <data>
        6.6279538782545870e+01 0. 0. 0. 6.6279538782545870e+01 0. 0. 0.
        6.6279538782545870e+01</data></_>
    <_ type_id="opencv-matrix">
      <rows>3</rows>
      <cols>3</cols>
      <dt>d</dt>
      <data>
        7.0109548550813159e+00 0. 0. 0. 7.0109548550813159e+00 0. 0. 0.
        7.0109548550813159e+00</data></_></covs></opencv_ml_em>
</opencv_storage>
