<?xml version="1.0"?>
<opencv_storage>
<opencv_ml_em>
  <format>3</format>
  <training_params>
    <nclusters>4</nclusters>
    <cov_mat_type>spherical</cov_mat_type>
    <epsilon>1.0000000000000001e-01</epsilon>
    <iterations>100</iterations></training_params>
  <weights type_id="opencv-matrix">
    <rows>1</rows>
    <cols>4</cols>
    <dt>d</dt>
    <data>
      2.4387708690156851e-01 3.9733763824203572e-01
      8.8481961814294671e-02 2.7030331304210092e-01</data></weights>
  <means type_id="opencv-matrix">
    <rows>4</rows>
    <cols>3</cols>
    <dt>d</dt>
    <data>
      5.8572973987703094e+01 4.9857688288468438e+01
      4.6284763729815332e+01 4.4227847471879066e+01
      3.9940155592202089e+01 2.3608181084389710e+01
      8.6926916528776417e+01 9.6811587312439542e+01
      4.4637168427861930e+01 7.0772912843596700e+01
      6.2379393151432524e+01 5.8595338723043959e+01</data></means>
  <covs>
    <_ type_id="opencv-matrix">
      <rows>3</rows>
      <cols>3</cols>
      <dt>d</dt>
      <data>
        9.6616030141640685e+00 0. 0. 0. 9.6616030141640685e+00 0. 0. 0.
        9.6616030141640685e+00</data></_>
    <_ type_id="opencv-matrix">
      <rows>3</rows>
      <cols>3</cols>
      <dt>d</dt>
      <data>
        2.5907373962981598e+01 0. 0. 0. 2.5907373962981598e+01 0. 0. 0.
        2.5907373962981598e+01</data></_>
    <_ type_id="opencv-matrix">
      <rows>3</rows>
      <cols>3</cols>
      <dt>d</dt>
      <data>
        7.5413192297346683e+01 0. 0. 0. 7.5413192297346683e+01 0. 0. 0.
        7.5413192297346683e+01</data></_>
    <_ type_id="opencv-matrix">
      <rows>3</rows>
      <cols>3</cols>
      <dt>d</dt>
      <data>
        6.6539834660089143e+00 0. 0. 0. 6.6539834660089143e+00 0. 0. 0.
        6.6539834660089143e+00</data></_></covs></opencv_ml_em>
</opencv_storage>
