<?xml version="1.0"?>
<opencv_storage>
<opencv_ml_em>
  <format>3</format>
  <training_params>
    <nclusters>4</nclusters>
    <cov_mat_type>spherical</cov_mat_type>
    <epsilon>1.0000000000000001e-01</epsilon>
    <iterations>100</iterations></training_params>
  <weights type_id="opencv-matrix">
    <rows>1</rows>
    <cols>4</cols>
    <dt>d</dt>
    <data>
      2.5098454133979659e-01 3.0354047653753774e-01
      9.1895771216401120e-02 3.5357921090626454e-01</data></weights>
  <means type_id="opencv-matrix">
    <rows>4</rows>
    <cols>3</cols>
    <dt>d</dt>
    <data>
      4.4204373653565149e+01 3.9471184236871729e+01
      2.4558433479068270e+01 7.0538120660459100e+01
      6.2083992256570944e+01 5.8494823904373632e+01
      8.7366171895606030e+01 9.7223355280536154e+01
      4.4958475901942627e+01 5.9145694169533385e+01
      5.0506478366738051e+01 4.6879574294954331e+01</data></means>
  <covs>
    <_ type_id="opencv-matrix">
      <rows>3</rows>
      <cols>3</cols>
      <dt>d</dt>
      <data>
        3.5342012491550108e+01 0. 0. 0. 3.5342012491550108e+01 0. 0. 0.
        3.5342012491550108e+01</data></_>
    <_ type_id="opencv-matrix">
      <rows>3</rows>
      <cols>3</cols>
      <dt>d</dt>
      <data>
        7.7338492823925389e+00 0. 0. 0. 7.7338492823925389e+00 0. 0. 0.
        7.7338492823925389e+00</data></_>
    <_ type_id="opencv-matrix">
      <rows>3</rows>
      <cols>3</cols>
      <dt>d</dt>
      <data>
        6.6553538002823529e+01 0. 0. 0. 6.6553538002823529e+01 0. 0. 0.
        6.6553538002823529e+01</data></_>
    <_ type_id="opencv-matrix">
      <rows>3</rows>
      <cols>3</cols>
      <dt>d</dt>
      <data>
        8.1456203816895112e+00 0. 0. 0. 8.1456203816895112e+00 0. 0. 0.
        8.1456203816895112e+00</data></_></covs></opencv_ml_em>
</opencv_storage>
