<?xml version="1.0"?>
<opencv_storage>
<opencv_ml_em>
  <format>3</format>
  <training_params>
    <nclusters>3</nclusters>
    <cov_mat_type>spherical</cov_mat_type>
    <epsilon>1.0000000000000001e-01</epsilon>
    <iterations>100</iterations></training_params>
  <weights type_id="opencv-matrix">
    <rows>1</rows>
    <cols>3</cols>
    <dt>d</dt>
    <data>
      5.9187462847926786e-01 3.0216537542082905e-01
      1.0595999609990400e-01</data></weights>
  <means type_id="opencv-matrix">
    <rows>3</rows>
    <cols>3</cols>
    <dt>d</dt>
    <data>
      8.6881744026668841e+01 8.0630263086289105e+01
      7.9033064780436035e+01 5.9684527589346708e+01
      5.4391173908972952e+01 5.1296311566787907e+01
      1.2113269786890832e+02 1.2247333663989126e+02
      1.2074669732317874e+02</data></means>
  <covs>
    <_ type_id="opencv-matrix">
      <rows>3</rows>
      <cols>3</cols>
      <dt>d</dt>
      <data>
        1.1302215174139880e+02 0. 0. 0. 1.1302215174139880e+02 0. 0. 0.
        1.1302215174139880e+02</data></_>
    <_ type_id="opencv-matrix">
      <rows>3</rows>
      <cols>3</cols>
      <dt>d</dt>
      <data>
        1.3955436179576904e+02 0. 0. 0. 1.3955436179576904e+02 0. 0. 0.
        1.3955436179576904e+02</data></_>
    <_ type_id="opencv-matrix">
      <rows>3</rows>
      <cols>3</cols>
      <dt>d</dt>
      <data>
        4.1303124136788995e+02 0. 0. 0. 4.1303124136788995e+02 0. 0. 0.
        4.1303124136788995e+02</data></_></covs></opencv_ml_em>
</opencv_storage>