<?xml version="1.0"?>
<opencv_storage>
<opencv_ml_em>
  <format>3</format>
  <training_params>
    <nclusters>3</nclusters>
    <cov_mat_type>spherical</cov_mat_type>
    <epsilon>1.0000000000000001e-01</epsilon>
    <iterations>100</iterations></training_params>
  <weights type_id="opencv-matrix">
    <rows>1</rows>
    <cols>3</cols>
    <dt>d</dt>
    <data>
      8.1538288133676617e-01 1.3471154057241577e-01
      4.9905578090816069e-02</data></weights>
  <means type_id="opencv-matrix">
    <rows>3</rows>
    <cols>3</cols>
    <dt>d</dt>
    <data>
      2.6385488432742338e+01 2.1190082690668749e+01
      1.4941586933799240e+01 6.3403573418899683e+01
      6.3016573395761057e+01 5.2442953651953644e+01
      1.1964425534018775e+02 1.2127157141049975e+02
      1.0952474064852647e+02</data></means>
  <covs>
    <_ type_id="opencv-matrix">
      <rows>3</rows>
      <cols>3</cols>
      <dt>d</dt>
      <data>
        2.9219440623167500e+01 0. 0. 0. 2.9219440623167500e+01 0. 0. 0.
        2.9219440623167500e+01</data></_>
    <_ type_id="opencv-matrix">
      <rows>3</rows>
      <cols>3</cols>
      <dt>d</dt>
      <data>
        3.1463897595710893e+02 0. 0. 0. 3.1463897595710893e+02 0. 0. 0.
        3.1463897595710893e+02</data></_>
    <_ type_id="opencv-matrix">
      <rows>3</rows>
      <cols>3</cols>
      <dt>d</dt>
      <data>
        8.6699243125182238e+02 0. 0. 0. 8.6699243125182238e+02 0. 0. 0.
        8.6699243125182238e+02</data></_></covs></opencv_ml_em>
</opencv_storage>