<?xml version="1.0"?>
<opencv_storage>
<opencv_ml_em>
  <format>3</format>
  <training_params>
    <nclusters>4</nclusters>
    <cov_mat_type>spherical</cov_mat_type>
    <epsilon>1.0000000000000001e-01</epsilon>
    <iterations>100</iterations></training_params>
  <weights type_id="opencv-matrix">
    <rows>1</rows>
    <cols>4</cols>
    <dt>d</dt>
    <data>
      4.1253088485790090e-01 8.0563666151192370e-02
      2.3765174013943652e-01 2.6925370885147065e-01</data></weights>
  <means type_id="opencv-matrix">
    <rows>4</rows>
    <cols>3</cols>
    <dt>d</dt>
    <data>
      4.3832525692946852e+01 3.9602064160135413e+01
      2.3140630720991677e+01 8.8017018019428193e+01
      9.8071382980314723e+01 4.5028392418129208e+01
      7.0743330493026562e+01 6.2293206818927970e+01
      5.8663743256377110e+01 5.9360413926229022e+01
      5.0683266425731233e+01 4.7138717057089764e+01</data></means>
  <covs>
    <_ type_id="opencv-matrix">
      <rows>3</rows>
      <cols>3</cols>
      <dt>d</dt>
      <data>
        3.3160921901147631e+01 0. 0. 0. 3.3160921901147631e+01 0. 0. 0.
        3.3160921901147631e+01</data></_>
    <_ type_id="opencv-matrix">
      <rows>3</rows>
      <cols>3</cols>
      <dt>d</dt>
      <data>
        4.7545699067500948e+01 0. 0. 0. 4.7545699067500948e+01 0. 0. 0.
        4.7545699067500948e+01</data></_>
    <_ type_id="opencv-matrix">
      <rows>3</rows>
      <cols>3</cols>
      <dt>d</dt>
      <data>
        7.8525513840280849e+00 0. 0. 0. 7.8525513840280849e+00 0. 0. 0.
        7.8525513840280849e+00</data></_>
    <_ type_id="opencv-matrix">
      <rows>3</rows>
      <cols>3</cols>
      <dt>d</dt>
      <data>
        8.2634359773816737e+00 0. 0. 0. 8.2634359773816737e+00 0. 0. 0.
        8.2634359773816737e+00</data></_></covs></opencv_ml_em>
</opencv_storage>
